1 100
5 3
-0.360029 0.704187 -0.962269 
-1.63332 0.0711045 -0.230836 
-1.4009 1.0993 -1.58085 
-0.843093 -0.819368 -1.13345 
-1.1912 0.758836 -0.589818 
-0.342381 0.606043 -0.764177 
0 -0.701156
 5 3
-0.920509 0.828686 -0.495745 
-3.09534 0.722925 -1.31644 
-0.975165 0.497426 -1.37392 
-2.65569 0.826535 -1.75579 
-0.897956 -0.00641919 -0.782955 
0 0.186802
 5 3
-0.596678 -0.300814 -0.438966 
-1.80847 0.676003 -0.357914 
-1.27279 0.53878 -0.254787 
-0.41939 0.655953 -1.10639 
-0.834073 -0.0427893 -0.753551 
0 -0.780834
 5 3
-0.634319 0.770125 -0.434006 
-0.628308 0.248239 1.14894 
-0.461279 -1.24442 -0.029208 
0.890745 0.953583 -1.01675 
-0.15071 0.0505599 -0.685631 
0 0.277472
 5 3
-0.380028 0.165831 -0.859889 
-1.35847 0.313089 -2.95606 
0.0435017 1.30052 -0.565233 
-2.88639 0.493942 -1.08218 
-0.998609 0.000811189 -0.438246 
0 -0.744896
 5 3
-0.591482 0.163034 -0.526785 
-1.48402 0.753232 0.628192 
-0.971727 -0.594849 -0.771421 
-0.815624 0.545249 -2.37745 
-0.383324 0.754406 -1.14527 
0 0.443643
 5 3
-0.513423 -0.130528 -0.185167 
-1.84259 0.969767 -1.77428 
-0.847797 0.195027 -0.105971 
-0.152883 0.378471 -0.226249 
-0.491239 -0.0987102 -0.724673 
0 -1.00666
 5 3
-0.915968 -0.558085 -0.456258 
-1.58149 0.812654 -0.219944 
-0.0149079 1.79092 -0.507285 
-3.73645 0.197828 -2.0207 
-0.144772 -0.0303883 -0.808869 
0 0.760331
 5 3
-1.35348 -0.528729 -0.89286 
-2.81378 0.641571 -0.836609 
-1.26645 0.180879 -0.454645 
0.217846 1.20165 -0.465827 
-1.18204 -0.203987 -0.8057 
0 -0.640778
 5 3
-1.24861 0.711293 -0.357048 
0.37261 0.703677 -0.731981 
-1.01736 -0.109735 -0.346 
-1.14136 0.959941 -1.00943 
-0.652903 1.07957 -1.27593 
0 0.0378614
 5 3
0.227045 0.810408 -0.379638 
-0.275778 0.492831 0.237715 
-0.121353 0.285693 0.142503 
-0.586633 -0.22591 -0.476515 
0.226774 1.17752 -0.292843 
0 0.484341
 5 3
-1.08994 1.19344 -1.11813 
-1.36291 0.707868 -0.757349 
-1.04727 -1.32125 -0.901233 
-1.1825 0.634654 -1.80773 
0.272891 1.05325 -0.400181 
0 0.519525
 5 3
-0.551048 0.610984 -0.0903678 
-2.48273 -0.014036 -1.34586 
-0.250399 -1.01541 -0.359083 
1.1806 -0.0450733 -0.379574 
-0.0422837 0.65067 -0.345838 
0 -0.422867
 5 3
-0.26987 -0.196003 -0.384511 
-0.497456 0.112835 0.69437 
0.133171 1.11465 -0.292558 
0.913346 0.781068 -0.575415 
-0.795831 0.43846 -0.291612 
0 0.880146
 5 3
0.502126 0.373563 0.0355535 
0.672424 0.327983 -0.565876 
0.196866 0.548126 -0.24836 
-0.100197 0.0974767 -0.0618689 
-1.20844 0.56609 -0.118931 
0 -0.523424
 5 3
-1.21209 0.00666934 -0.0493133 
0.358214 0.704271 -0.325572 
-0.500652 -0.810674 -0.637741 
-0.998213 0.206301 0.111507 
-0.345281 0.91254 -0.808126 
0 0.733914
 5 3
-1.07456 0.0732017 -0.0799607 
-1.00263 0.114477 -2.64826 
-0.347203 0.791735 -0.703027 
-1.48294 0.693932 0.6811 
-0.721066 0.23163 -0.405013 
0 0.00790205
 5 3
-0.870028 0.727396 -0.600515 
-0.349922 1.11274 -0.208541 
-1.25313 0.311076 -0.399306 
-1.79614 0.31245 -0.947111 
-1.08714 0.114799 -0.902526 
0 0.287665
 5 3
-1.3133 0.297473 -1.01183 
-2.1388 0.687994 -2.14712 
-1.20693 1.39808 -1.14763 
-0.155648 0.733223 -0.649594 
-0.540041 -0.367672 -0.993881 
0 -0.375546
 5 3
-1.02951 -0.18084 -0.225117 
1.87414 0.917796 -0.582281 
-0.285432 1.68322 -0.488888 
-0.133246 0.20055 0.773974 
-0.76786 0.837414 -0.726628 
0 0.236811
 5 3
-0.388877 0.377229 -0.865342 
-2.6754 0.171351 -0.336878 
-0.79936 1.96478 -0.286986 
-0.703389 0.734784 -1.22304 
-0.769605 -0.203731 -0.705639 
0 -0.62565
 5 3
0.322469 0.400648 -0.170472 
0.681777 0.00933469 -0.370676 
0.278607 1.65541 -0.628464 
0.0815822 0.0320099 -0.40026 
0.432808 0.626661 0.00732841 
0 0.403703
 5 3
-0.890788 0.148044 -0.347496 
-3.11732 0.539243 -1.58612 
-1.61132 -0.277279 -0.177874 
1.3991 0.819648 -1.92922 
-0.601937 0.851079 -0.462184 
0 -0.17119
 5 3
-0.092389 1.56478 -0.362867 
-0.828498 0.206307 -0.102073 
-0.849548 0.126242 0.0310965 
0.0981279 0.647208 -0.520486 
0.498283 1.37963 -0.591817 
0 1.11948
 5 3
-0.568029 0.964682 -0.31107 
-0.309182 0.161896 -1.97874 
-0.893435 0.393713 -0.772541 
-2.57218 0.254642 -0.113731 
-0.251895 1.08921 -0.831075 
0 -0.461557
 5 3
-1.06171 0.535013 -0.481273 
-2.21033 0.330206 -2.12267 
-0.243803 1.30057 -0.163819 
-2.0196 0.639145 -1.89383 
-0.170772 0.597989 -0.667832 
0 0.149911
 5 3
-0.497732 0.798858 0.173657 
-0.109773 -0.122783 0.122222 
-0.0356717 0.154557 0.00910123 
-0.281578 0.524118 -0.139838 
-0.0657819 0.859173 -0.0974389 
0 -0.0387213
 5 3
0.452216 0.674543 -0.331985 
-0.404096 0.579948 1.61503 
0.1081 0.608514 -0.744107 
-0.751348 0.728207 -0.0571329 
-0.210697 -0.0660697 -0.991887 
0 0.321111
 5 3
-1.94381 1.0446 -0.504889 
-0.354705 0.314393 -2.40287 
-2.05614 1.40665 -1.04418 
-1.64786 0.653697 -0.43038 
-0.346725 0.740222 -0.587747 
0 -0.860949
 5 3
-0.481689 0.966747 -0.449034 
0.00760545 0.132069 0.179094 
-0.562775 0.464254 -0.718421 
0.357361 0.362484 -0.514566 
0.612307 1.09746 -0.562838 
0 0.918805
 5 3
-0.621556 1.64733 -0.0329636 
0.598735 0.427202 -0.920926 
-0.607095 0.0680732 0.0318577 
-0.840868 0.743679 1.04112 
0.0333822 0.93023 -0.203043 
0 0.163911
 5 3
-0.117387 1.05058 -0.572366 
-0.00649789 0.619151 -0.625042 
0.0625113 0.596648 -0.0512319 
-0.284482 0.195951 0.419619 
-0.338965 1.11488 -0.0854126 
0 1.2104
 5 3
-0.746574 1.25455 -1.00864 
-1.59856 0.331279 -3.22079 
-0.811892 -0.655513 -0.460556 
-2.2677 0.806239 0.618986 
-0.00358045 0.608438 -0.256265 
0 -0.659048
 5 3
-0.543788 -0.288198 0.0433087 
-0.620677 0.438518 1.17563 
-0.565789 -0.169477 0.0280189 
0.587687 0.39744 -1.29225 
-1.52621 -0.624539 -0.279302 
0 1.13596
 5 3
-0.533129 -0.400117 -1.23528 
-0.899248 0.597629 -3.26111 
-0.673984 1.22724 -1.17443 
-2.03103 1.05879 0.295857 
-1.26853 -0.591296 -0.765664 
0 -1.10475
 5 3
-0.438993 -0.267208 -0.3704 
1.74424 0.751058 -1.31383 
0.39888 2.53387 -0.973629 
0.0418637 0.649339 0.779965 
-0.366498 0.500838 -0.877648 
0 0.309491
 5 3
-2.01131 0.459707 -0.97548 
-3.07002 0.506411 -2.06128 
-1.67432 1.04131 -0.97191 
-1.92506 1.178 -1.45644 
-0.128867 0.596009 -0.708596 
0 -0.282527
 5 3
-0.422548 1.61491 -0.590827 
-0.165046 -0.0233277 -0.879096 
-0.690334 0.973459 -0.308012 
-0.105398 0.643074 -0.68702 
-0.0474807 1.52944 -0.122612 
0 0.523465
 5 3
-0.468112 1.11282 -0.134732 
-2.36455 0.230712 -2.19113 
-0.29037 0.261827 -0.108059 
0.0619135 0.483406 -0.486597 
-0.126592 1.44819 -0.205443 
0 -0.819567
 5 3
-0.0939507 -0.135456 -0.370735 
-0.214279 0.760823 -1.33956 
-0.189926 1.26871 -0.952723 
-0.199721 1.04553 0.322272 
-1.41875 0.0251678 -0.731891 
0 0.782407
 5 3
-0.414079 -0.834102 -0.19957 
-1.39664 0.7746 -2.11871 
-0.383387 2.01443 -0.169113 
-2.88389 0.875647 -0.620182 
-0.573606 -0.339468 -0.457604 
0 -0.799015
 5 3
-0.702136 -0.000824909 -0.567689 
0.522581 0.103503 0.728279 
-0.849565 -0.359191 -0.739692 
-0.411456 0.628207 -0.901019 
-1.00033 0.069129 -0.0277863 
0 1.17364
 5 3
-0.29772 -0.0676355 -0.435182 
-1.30122 0.170831 -1.04737 
-0.192546 0.95878 -0.269803 
0.0808896 0.0338639 -0.0878607 
-1.45265 -0.554673 0.0549449 
0 0.0422492
 5 3
-0.824076 0.638435 -0.65834 
-0.354705 0.874075 -0.23415 
0.0166299 -0.982171 -0.870352 
-0.801758 0.781909 -1.21151 
-0.383831 0.858272 -0.451882 
0 0.352738
 5 3
0.301357 1.47835 0.0155209 
0.338729 -0.420074 0.345964 
-0.274206 1.1006 -0.152697 
-0.581293 0.515165 0.122736 
-0.117047 0.831408 -0.525633 
0 0.214563
 5 3
-0.291986 0.353023 -0.810648 
0.348449 0.882977 -1.22611 
-0.716157 1.08668 -0.987198 
-2.47603 0.588626 -0.875164 
-0.702606 0.235289 -0.636937 
0 0.471648
 5 3
-0.643248 1.02132 -0.553329 
-0.126597 -0.0246916 -0.547316 
-0.830498 0.504115 -0.873193 
0.436574 0.439403 0.363112 
-0.905481 0.0499922 -0.119905 
0 -0.209538
 5 3
-0.989988 1.2091 -1.04078 
-0.200897 1.03901 1.21002 
-0.744257 -1.16394 -0.331007 
-0.0521696 0.978609 0.377396 
-0.0520154 1.26846 -0.563954 
0 0.0215128
 5 3
-1.25788 -0.294061 -0.207428 
-1.08623 0.94033 -1.64982 
-1.22821 1.41919 -0.596691 
-0.292676 0.286318 0.432023 
-1.23165 0.44473 -0.508554 
0 -0.392492
 5 3
-0.65366 0.347568 -0.309897 
1.29955 0.445887 -1.35965 
-0.734958 1.20751 -0.837623 
-0.316426 0.827124 0.00300487 
-0.509419 0.231418 -0.658998 
0 0.735973
 5 3
-0.544276 0.122652 -0.793374 
-1.48965 0.0890072 -0.17093 
-0.352256 -1.20911 -0.0192724 
-0.287579 0.316614 -1.58884 
-0.643578 0.412301 -0.752937 
0 -0.152486
 5 3
-0.551687 1.1281 -0.446794 
-2.24818 0.324995 -1.50917 
-1.55093 0.712652 -1.06034 
-0.765241 0.876922 -0.290456 
-0.533273 0.204329 -0.715632 
0 0.668596
 5 3
-0.747887 -0.0986232 -0.697944 
-1.06398 0.825908 0.996543 
-1.02393 -0.0460551 -1.12752 
-0.677247 0.331172 -1.30081 
-0.280155 -0.0537386 -0.954757 
0 -0.723121
 5 3
-0.261015 0.324942 -0.907317 
-0.838065 0.774745 -0.268929 
-0.605663 0.403787 -0.929687 
-0.0548707 0.497942 -1.12659 
-0.347444 -0.310608 -0.654563 
0 0.43333
 5 3
-0.275142 1.46471 -0.141198 
-0.489073 0.638497 -0.825452 
-0.0832026 2.72024 -0.49094 
-0.591769 -0.0359618 -0.755501 
-0.282713 1.22505 -0.548864 
0 -0.0460414
 5 3
0.208154 -0.265198 -1.01881 
-0.43963 1.01508 -0.110303 
-0.103646 0.150568 -0.997565 
-0.0500829 0.931675 0.0864376 
-0.448698 0.103442 -0.768004 
0 -0.0398632
 5 3
-2.13903 0.180648 -0.254931 
-3.54567 1.17622 -1.3761 
-1.2653 0.514023 -0.340962 
-1.58514 0.761111 -2.23492 
-0.0732229 0.334016 -0.381857 
0 -0.849736
 5 3
-0.61133 0.369107 -0.205887 
-0.423247 0.613187 0.372576 
-0.322297 0.772506 -0.663298 
-0.614615 0.516718 -0.0912555 
-0.672497 0.712097 -0.945442 
0 0.269256
 5 3
-0.523938 0.260243 -0.180928 
-1.35965 0.348413 -1.57587 
-0.730232 1.11751 -0.669041 
-1.76396 0.27819 -0.997045 
-1.42171 0.198058 -0.810463 
0 -0.747626
 5 3
-0.333758 1.55045 0.119226 
-0.497546 0.373861 -0.84022 
0.127824 0.0639977 -0.0635795 
-0.366155 0.579373 0.27202 
0.333449 1.15611 -0.563869 
0 0.580788
 5 3
-0.165492 0.237145 0.34054 
-0.156452 -0.0870838 -0.359994 
0.328284 0.731531 0.185018 
-0.636355 -0.330347 -0.250965 
-0.195468 0.83206 -0.289698 
0 0.173268
 5 3
-0.682226 1.35132 -0.319344 
-0.0851088 0.21552 -1.01211 
-0.931571 -0.197818 -0.949002 
-1.574 0.309547 0.000643202 
0.27477 1.61734 -0.364023 
0 0.438675
 5 3
-1.43598 0.615263 -0.831085 
-2.02842 0.277907 -1.49812 
-1.89534 -0.760882 -0.268995 
1.0566 0.490132 0.565524 
-0.204303 0.496067 -1.17503 
0 -0.449238
 5 3
-1.05685 0.659007 -0.492322 
0.383329 1.00155 0.564436 
-0.249736 -0.977437 -0.514815 
-0.541621 0.592087 -0.12656 
-0.159566 0.44821 -0.281501 
0 -0.120485
 5 3
-0.526398 0.404262 0.456295 
0.016126 -0.19112 0.196515 
-0.321909 0.85708 0.0213454 
-0.604433 0.001574 0.360998 
0.0137927 0.90948 -0.0291627 
0 0.440212
 5 3
-1.06415 1.57326 0.147563 
0.0508656 0.327182 -0.282344 
-0.622676 -0.863955 -0.188476 
0.346655 0.79378 0.674277 
0.15414 1.62355 -0.233887 
0 0.645412
 5 3
0.392849 1.48838 -0.302788 
-0.672754 -0.221185 -0.589458 
0.0588757 0.100729 -0.298912 
-0.520233 0.123491 -0.394544 
-0.231618 0.826672 0.427581 
0 0.36453
 5 3
-0.28425 0.652357 -0.510429 
-0.908819 0.695768 -0.545884 
0.155855 1.04189 -0.805208 
0.588556 -0.0606634 -0.64066 
-0.163557 0.802475 -0.296708 
0 1.00799
 5 3
-1.06598 0.403655 -0.699684 
-2.24841 0.796702 -2.08397 
-1.43221 1.89019 -0.420775 
-3.62078 0.86131 -0.756603 
-0.388832 0.431658 -1.11104 
0 -1.1144
 5 3
-1.34324 0.218002 -0.867259 
0.723187 0.150807 0.341675 
-0.874613 0.974511 -0.240622 
-0.180984 0.343897 -0.276573 
0.213041 0.536751 -0.33581 
0 0.136006
 5 3
-1.20023 1.04645 -0.458392 
-0.687422 0.854064 -1.12168 
-1.24946 -0.729275 -0.417863 
0.994467 0.353073 0.559134 
-0.348833 0.653243 -0.583823 
0 -0.442126
 5 3
-1.05272 1.05089 -0.711432 
-0.666398 0.37347 1.31191 
-1.30802 -0.629791 -0.507905 
0.586475 0.710029 -0.000474192 
-0.316932 0.639122 -1.10457 
0 -0.00166349
 5 3
0.252334 0.358644 0.32646 
-0.667941 -0.436876 -0.081968 
-0.120878 0.076004 0.515583 
-0.170422 0.107483 -0.142075 
-0.727725 0.882706 0.199778 
0 -0.310034
 5 3
0.621005 0.840186 -0.204476 
-0.485918 0.667809 1.1042 
-0.403529 0.674653 -0.743128 
-0.804144 0.113226 -0.322041 
0.10637 0.570435 -0.229288 
0 0.378305
 5 3
-0.851102 0.253289 -0.534364 
-0.664769 0.880719 -0.989234 
-0.493001 0.883774 -0.659307 
-2.39206 0.727882 -0.890967 
-0.421784 0.418513 -0.164327 
0 -0.379025
 5 3
0.0796275 0.562271 -0.887185 
0.76073 0.967174 -0.0341266 
-0.246168 -0.142218 -0.211658 
-1.79428 1.0084 0.157912 
-0.501645 0.134757 -0.215625 
0 0.867446
 5 3
-1.56822 0.471808 -0.43776 
-1.0151 0.221322 -2.67793 
-0.770352 1.48281 -0.939026 
-1.84165 1.02518 0.992806 
-0.479161 0.594938 -0.78796 
0 -0.392714
 5 3
-0.81113 0.356026 -0.106142 
0.328921 0.260749 0.602965 
-0.238157 0.526305 -0.734793 
-2.47001 0.656207 0.576371 
-0.681646 -0.232566 -0.875086 
0 0.438919
 5 3
-1.40622 0.334449 -0.367049 
-0.550724 0.835813 0.733719 
-1.1182 1.44618 -0.656456 
0.512072 0.396744 0.93138 
-0.617989 0.263599 -0.86917 
0 -0.55605
 5 3
-0.0579206 0.465738 -0.368578 
0.940215 0.948368 1.16183 
-0.235047 -0.540942 -0.0442268 
0.743133 0.477925 0.158994 
-0.387312 0.678455 -0.679622 
0 0.0928928
 5 3
-1.59459 0.235889 -0.788796 
-2.28585 0.708319 -1.32529 
-0.869286 -0.314475 -0.377773 
-0.414326 0.723243 -0.448861 
0.13521 1.15529 -0.589419 
0 -0.432279
 5 3
0.405328 1.22188 -0.182874 
0.0953787 0.680967 -0.424467 
-0.123258 0.749172 -0.623134 
0.0436949 -0.10403 -0.506545 
0.472739 1.31011 -0.602534 
0 1.01577
 5 3
-0.283522 1.31929 0.0972797 
-0.832268 -0.19381 -0.145767 
0.16289 0.178013 -0.152392 
-0.790922 -0.381529 0.039789 
0.00490444 0.439366 0.636725 
0 -0.19286
 5 3
-0.414681 1.36701 -0.635243 
0.294579 -0.0627456 -0.387257 
0.203125 0.688982 -0.282144 
-0.158636 -0.0893577 -0.396298 
0.516048 0.818608 -0.694846 
0 1.00372
 5 3
-0.198569 0.482649 0.216804 
-0.515838 0.22132 -0.199995 
0.206664 0.15147 0.345805 
-0.689174 -0.429182 -0.054289 
-0.349888 0.907169 0.0200509 
0 0.241249
 5 3
0.299831 1.20397 -0.606182 
-0.750952 0.240448 -0.33489 
-0.389588 0.97722 -0.376499 
0.0399307 0.316561 -0.616849 
-0.0675279 1.11998 -0.301912 
0 0.245987
 5 3
0.183204 0.53979 0.657043 
-0.750533 0.134088 0.145662 
0.36804 0.235218 -0.145624 
-1.26748 -0.0928778 -0.00607626 
-0.662624 1.14505 0.433007 
0 0.235521
 5 3
0.11825 1.00124 -0.480774 
-1.01334 0.868175 0.0427209 
-0.758204 1.46426 -0.51587 
-2.47634 0.412778 -0.959052 
-0.534838 0.870753 -0.77369 
0 0.614871
 5 3
-0.899308 -0.162197 -0.966878 
-1.61819 0.446842 -1.05554 
-0.732208 -0.32156 -0.111016 
-1.52274 0.426242 -0.382831 
-1.27221 0.32138 -0.224149 
0 -0.191463
 5 3
-0.787148 0.484182 -0.107281 
0.0162463 0.811221 -0.706806 
-0.620226 -0.282794 -0.523096 
-0.813963 0.961678 0.462488 
-0.087016 0.971 -0.42324 
0 0.706922
 5 3
-0.83754 0.729425 -0.242097 
-2.21537 0.514414 -0.489481 
-0.325251 -0.230419 -0.987328 
-0.470748 0.129484 -0.62837 
-0.671003 0.638638 -0.753435 
0 -0.0986294
 5 3
-0.671836 1.01835 -1.22017 
-0.712608 1.19664 0.899789 
-0.462486 -0.63449 -0.857247 
-1.48518 0.611695 -1.54313 
-0.56395 0.869382 -0.949871 
0 0.420014
 5 3
-0.137177 0.658411 0.185085 
-0.743156 0.000650653 0.496457 
0.0933444 0.77258 -0.0203046 
-1.09747 0.0771911 -0.0976441 
-0.347953 0.490208 0.484075 
0 -0.478967
 5 3
-0.263741 0.576194 -0.370496 
-1.90159 0.218117 -2.63902 
-0.327193 0.3092 -0.544024 
-0.0384564 0.828121 -0.65214 
-0.21897 0.788598 -0.369519 
0 1.02286
 5 3
-2.00414 0.191159 -1.06264 
-0.551811 0.550356 -1.04692 
-1.71458 0.143198 -0.936873 
0.877549 1.06066 -0.845618 
0.350591 0.599591 -1.10381 
0 -0.931349
 5 3
0.0789541 0.342519 -0.672406 
0.955335 -0.117718 -0.442876 
0.541097 0.424409 0.0778913 
0.912032 0.638958 -0.718949 
-0.602882 -0.158532 0.238876 
0 0.408712
 5 3
-0.235426 -0.107627 -0.504483 
-1.09642 0.200428 -1.15132 
-0.179017 1.83086 -0.35595 
-0.467374 0.0131965 -1.18992 
-0.461448 0.338076 -0.751165 
0 -0.0717615
 5 3
-1.10977 1.19718 -0.677145 
0.25903 0.883084 0.836865 
-0.950434 -0.0734529 -0.517472 
0.18622 0.50969 0.376575 
-0.249251 1.34549 -0.140843 
0 0.221076
 5 3
-1.40719 0.177224 -0.604023 
-1.30002 0.181983 -3.13416 
-0.992562 1.28085 -0.590656 
-1.28849 0.812495 -0.606383 
-0.240725 0.693752 -0.136327 
0 -0.33546
 5 3
-1.1219 1.09662 -0.471003 
-0.463335 0.699312 -1.56369 
-1.20982 0.558819 -1.14098 
-1.95196 0.440577 -1.83026 
-0.0417552 0.455544 -0.559782 
0 -0.244007
 
1 10
1 100
-0.468161 0.0474547 -0.534842 0.744198 -0.698348 0.468369 -0.468896 0.0926731 -0.421628 0.457408 -0.154749 0.851227 -0.199854 0.0838551 -0.173356 0.735116 -0.730678 0.178266 -0.886777 0.0792454 -0.824326 0.274596 -0.412964 0.469055 -0.100448 0.161342 -0.480881 0.374643 -0.897833 0.132612 -0.470779 0.50223 -0.0565252 0.488838 -0.953887 -0.242974 -0.637502 -0.00492729 -0.391395 0.252336 -0.837387 0.686612 -0.786959 0.674451 -0.802236 0.209615 -0.657345 0.673108 -0.83399 0.370979 -0.0436343 0.135215 -0.210456 0.0951791 -1.2183 0.726038 -0.735021 0.125493 -0.751217 0.716321 -0.596457 0.576098 -0.486753 0.848385 -0.4956 1.02397 -0.353591 -0.0692105 -0.831466 0.362023 -0.27189 0.728736 -0.498482 0.454013 -0.72026 0.73764 -0.646855 0.436191 -0.657769 1.02262 -0.139897 0.583354 -0.317001 0.566145 -0.417844 -0.189183 -0.488906 -0.0970272 -0.166967 0.54403 -0.227052 0.560625 -0.667257 0.312798 -0.690847 0.692428 -0.876912 0.439127 -0.623679 0.203861 
-0.0948517 -0.835968
 1 100
-0.280623 0.810327 -0.192365 0.96172 -0.772336 0.802367 -0.463273 0.610366 0.0428855 0.897257 -0.732966 0.882726 -0.0288879 0.616646 -0.689905 0.937331 -0.614569 0.901307 -0.261939 0.7256 -0.686289 -0.0543027 -0.208685 0.435765 -0.491643 0.504232 -0.272072 0.125735 -0.0317602 0.0943 -0.928138 0.54998 -0.410199 0.850741 -0.307809 0.331887 -0.109651 0.128971 -0.777086 0.764255 -0.296097 0.897709 -0.723257 0.203831 -0.915904 0.425006 -0.619715 0.399986 0.00024707 0.763879 -0.0200667 0.598909 -0.0726424 0.137792 -0.992689 0.690911 -0.0657123 0.176506 -0.628028 0.252526 -0.394385 0.404267 -0.14438 0.911544 -0.713655 0.693774 -0.848755 0.595687 -0.434447 0.976773 -0.151885 0.992989 -0.559087 0.282911 -0.565458 0.121934 -0.2891 0.349982 -0.135542 0.823107 -0.261921 0.0223626 -0.238231 0.164968 -0.474496 0.0908235 -0.65209 0.0787318 -0.236149 0.54642 -0.556145 0.470303 -0.686521 0.550075 -0.13947 0.139585 -0.76811 0.656744 -0.237144 0.77514 
0.00494525 0.565421
 1 100
-0.73397 0.567701 -0.506822 0.668779 -0.400461 0.944921 -0.674126 0.813937 -0.695021 0.237375 -0.277182 0.988636 0.153232 0.621172 -0.295258 0.079985 -0.994629 0.429707 -0.321268 0.0031409 -0.181408 0.603599 -0.170648 0.704221 -0.697831 0.655992 -0.193727 0.156423 -0.5403 0.491622 -1.1384 0.0543343 -0.994734 0.806819 -0.970642 0.0453713 -0.180639 0.870202 -0.343274 0.17952 -0.487143 0.463253 -0.441757 0.539332 -0.152275 0.447524 -0.838653 0.152308 -0.986116 0.104817 -0.0375854 0.250046 -0.348551 0.558044 -0.63211 0.351485 -0.148607 0.0439764 -0.385249 0.0715162 -0.859077 0.23577 -0.894682 0.184941 -0.533488 0.144117 -0.434458 0.287353 -0.808767 0.753791 -0.80282 0.216172 -0.203013 0.9016 -0.295505 0.037396 -0.900766 -0.0126302 -0.857937 0.204728 -0.376751 0.122184 -0.587521 0.0279468 -0.799001 0.958116 -0.422961 0.257483 -0.383184 0.0945215 -0.445019 0.617228 -0.541104 0.651226 -0.572192 0.771968 0.180088 0.24948 -0.386806 0.965115 
9.07957e-05 -1.01029
 1 100
-0.756746 0.838596 -0.195846 0.254351 -0.174472 0.282622 -0.479976 1.09826 -0.0763423 0.0628522 -0.701648 0.629136 -0.296284 0.544262 -0.930551 0.146928 -0.546687 0.168808 -0.37718 -0.0934341 -0.194791 0.45128 -0.544121 0.817618 -0.0667946 0.648198 -0.85544 0.8969 -0.596537 0.587977 -0.262018 0.898536 -0.0679134 0.271137 -0.634651 0.315029 -0.256666 0.238601 -0.483117 0.380747 -0.421927 0.131982 -0.277775 0.364107 -1.00276 0.144787 -0.636377 0.491383 -0.0728328 0.175214 -0.797521 0.837711 -0.260567 0.226545 -0.489409 0.940196 -0.611973 0.798031 -0.702711 0.883993 -1.05303 0.544202 -0.408587 0.777934 -1.04462 0.757243 -0.386303 0.87898 -0.00775403 0.573921 -0.60909 0.987249 -0.942053 0.630229 -0.628625 0.271491 -0.00576857 0.792525 -0.214979 0.650769 -0.308146 0.258843 -1.04478 0.743103 -0.752328 0.369741 -0.827778 0.903701 -0.166685 0.516566 -0.133663 0.733638 -0.533442 0.719908 -0.716514 -0.0244208 -0.710592 0.539764 -0.355463 0.219604 
0.0018221 0.289396
 1 100
-0.758532 0.00717012 -0.209147 0.379984 -0.147916 0.53546 -0.536806 0.944634 -0.402854 0.18481 -0.338328 0.0524845 -0.527671 0.578117 0.0419299 0.364155 -0.543652 0.474484 -0.591938 0.644916 -0.286422 1.10493 -0.75209 -0.0805993 -0.416013 0.09612 -0.454705 0.571672 -0.935681 -0.100368 -0.861497 0.489894 -0.919963 0.962545 -0.14121 0.947667 -0.931602 -0.104231 -1.02915 0.83911 -0.0520973 0.801594 -0.2983 0.13944 -0.444934 0.751363 -0.698081 0.0819455 -0.313602 0.879214 -0.432975 0.00491514 -0.399774 0.455709 -0.73878 0.837706 -0.925806 0.385217 -0.229486 -0.126711 -0.0159121 0.0476452 -0.8611 0.468487 -0.512239 0.0245479 -0.67878 0.430872 -0.388727 0.525331 -0.974824 0.0892578 -0.760698 0.418978 -0.429959 0.419492 -0.650658 0.811797 -0.261714 0.513836 -0.929479 0.236362 -0.669378 0.127038 -0.361185 -0.159717 -0.217635 0.454083 -0.270203 0.0857055 -0.580358 0.32666 -0.34804 0.344848 -0.976135 0.811195 -0.553462 0.0302835 -0.834611 0.233734 
9.07957e-05 -0.670354
 1 100
-0.558723 0.858043 -0.792023 0.389592 0.233548 0.357955 -0.829531 0.857614 -0.849296 0.277603 -0.504131 0.969974 -0.686833 0.343461 -0.300849 0.74999 -0.275466 0.518614 -0.571429 0.756221 -0.504763 0.460371 -0.970532 0.312969 0.0383286 0.943724 -0.257676 -0.0637624 -0.24793 -0.194246 -0.937576 0.938775 0.150785 0.228522 -0.517908 0.715364 -0.102362 0.122106 -0.0692238 0.556036 -0.114364 0.46687 -0.842029 0.427921 -0.921703 0.904492 -0.700712 0.200528 -0.704484 0.744833 -0.725869 0.828298 -0.751183 0.273008 -0.387265 0.437036 -0.874886 0.0132024 -0.261325 0.861573 -0.984353 1.16421 -0.824879 0.290063 -0.338664 0.789449 -0.465921 0.190172 -0.207771 0.537156 -0.6697 0.0269115 -0.988111 0.632049 -0.341014 0.919978 0.133147 0.465584 -0.966159 0.479465 -0.196753 0.696201 -0.483093 -0.126707 -0.810217 0.100875 -1.03141 0.521137 -0.264407 0.815292 -0.458764 0.222986 -0.547035 0.901735 -0.95352 0.254923 -0.0539178 0.463452 -0.000489819 0.780409 
0.0133857 0.341775
 1 100
-0.91461 0.0387234 -0.583363 0.182854 -0.107636 0.101984 -0.5688 0.103532 -0.440065 0.430065 -0.622869 0.492901 -0.418148 0.408909 -0.51752 0.0779748 -0.478548 0.324627 -0.283976 0.308132 -0.916174 0.57169 -0.425264 -0.0777033 -0.0488111 0.238135 -0.692614 0.391583 -0.189953 0.504382 -0.668347 0.481877 -0.371848 0.399572 -0.412797 0.99482 -0.636955 0.797324 -0.201285 0.894109 -0.850244 0.244558 -0.112517 0.479157 -0.61621 0.348852 -0.659973 0.275544 -0.175629 0.968937 -0.511099 0.631326 -0.915708 0.416387 -0.390284 0.779313 -0.894055 0.568517 -0.999651 0.294425 -0.283368 0.831668 -0.361345 0.533093 -0.748122 0.950811 -0.611212 0.957863 -0.858188 0.762216 -0.385203 0.506796 -0.794782 0.182186 -0.888245 0.0598776 -0.355624 0.139065 -0.431413 0.440971 -0.801629 0.318332 -0.486393 0.449027 -0.243971 0.489361 -0.801136 -0.00159953 -0.891841 0.34857 -0.654201 0.374497 -1.21153 1.12382 -0.164037 0.582354 -0.422314 0.457851 -0.173453 0.653557 
0.0006707 -0.370836
 1 100
-0.573081 1.00334 -0.242948 0.739509 -0.704079 0.485665 -0.445421 -0.0352488 -0.430889 0.690519 -0.91565 0.571711 -0.346803 0.288577 -0.0406383 0.120475 -0.792572 0.634186 -0.181038 0.0106689 -0.298006 -0.0897645 -0.188989 0.420746 -0.786847 0.0992143 -0.695462 0.822848 -0.284523 -0.0854643 -0.467383 0.281964 -0.563379 0.383881 -0.0766627 0.26366 -0.809881 0.324455 -0.609749 0.598775 -0.823328 0.50819 -0.118142 0.359291 -0.266603 0.67905 -0.268656 0.797188 -0.983304 0.648355 -0.755048 1.05721 -0.393909 0.561125 -0.64578 0.934901 -0.537601 0.513149 -0.189804 0.460887 -0.599308 0.889895 -0.170054 0.0465392 -0.67019 0.565809 -0.674862 0.338598 -0.194282 0.0897001 -0.777185 0.315282 -0.33047 0.716459 -0.740489 0.684589 -0.980001 0.674405 -0.699009 0.825677 -0.767968 0.107156 -0.856412 -0.0460261 -0.0899637 0.544434 -0.872252 0.964373 -0.0860997 0.230036 -0.180097 0.489181 -0.294918 0.629306 -0.925504 0.305597 -0.894102 0.676393 -0.834573 0.642866 
0.000246789 -0.0712613
 1 100
-0.843288 0.246454 -0.55263 0.513229 -0.963438 0.113102 -0.761165 -0.0152781 -0.734588 0.0614026 -0.349078 0.24421 -0.470649 1.03974 -0.430996 0.612413 -0.539462 0.189781 -0.482986 0.55002 -0.356314 0.271546 -0.795628 0.774688 -0.826706 0.0037893 -0.354842 0.244111 -0.377151 0.598579 -0.460055 0.0567376 -0.87624 0.52176 -0.852626 0.669894 -0.750511 0.437787 -0.703688 0.35501 -0.661921 0.36973 -0.547015 0.0513433 -0.116368 0.131272 -0.136599 0.398552 -0.429885 0.250347 -0.659871 0.466617 -0.460677 0.11672 -0.252787 0.431111 -0.949137 0.306218 -0.27309 0.360391 -0.74325 -0.108821 -0.467242 0.274387 -0.416948 0.838632 -1.02125 0.478822 -0.862518 0.812447 -0.118383 0.515954 -0.633368 1.00091 -0.804732 0.252037 -0.462889 0.223883 -0.0617998 1.09011 -0.401044 0.573871 -0.775593 0.56462 -0.658936 0.787761 -0.774256 -0.0187177 -0.472163 0.519828 -0.648931 0.0515793 -0.231279 0.0542791 -0.621113 0.39114 -0.583554 0.778542 -0.586513 0.0411104 
0.0948517 -0.571479
 1 100
-0.59843 0.041652 -0.36247 0.224034 -0.32014 0.623096 -0.836288 0.159401 -0.737327 0.949673 -0.291239 0.445189 -1.11175 0.0121096 -0.273356 0.0131472 -0.748013 0.609402 -0.766099 0.973388 -0.973966 -0.0425157 -0.654684 0.411895 -0.0222129 -0.0959435 -0.257524 0.499032 -0.0342865 0.753093 -0.101378 0.106743 -0.414523 -0.00672252 -0.712852 0.791811 -0.353072 0.679077 -0.979565 0.0308055 -0.464329 0.398903 -0.223734 0.46134 -0.104391 0.554112 -0.739015 0.632881 -0.532412 0.462872 -0.153966 -0.00757163 -0.105075 0.189516 -0.142608 0.211623 -0.378583 0.759593 -0.891718 0.0929439 -0.314018 0.854857 -0.722699 0.947383 -0.633044 0.475532 -0.444847 -0.254563 -0.226656 0.854584 -0.820091 0.73751 -1.09847 0.642869 -0.141999 0.430184 -0.66929 0.897837 -0.151071 0.524107 -0.90701 0.438912 -0.872028 0.318864 -0.785311 -0.0739896 -0.29836 0.647389 -0.741916 0.265193 -0.653021 0.784304 -0.429945 -0.0846487 -0.0469986 -0.0101242 -0.934754 0.630591 -0.352097 0.83785 
0.0018221 0.102021
 
